3 2 2 3
[[[-0.7254073354073265, -0.019125426914570642, -0.15848451716201017, 0.979050569356704], [-0.7231473385195335, 0.46082971606013756, -0.2151935169662671, 0.4019086665099747], [0.5441852354152739, 0.11692473850645979, -0.8743397026921449, -0.8037812460920144], [-0.5793919878849982, -0.6708732317360411, 0.7710091348078538, 0.0692178511553403]], [[0.8018407981063533, 0.42396767996348994, -0.7233419086071708], [-0.7773113668058917, -0.7175410961901354, 0.7291328078588288], [-0.9006718492400043, -0.8520882931072169, 0.14086015902007598], [0.5117468735740915, -0.1415777483204217, -0.38885344339168393]], [[-0.5355903465970335, -0.5966072561085998, -0.7935542997575704], [-0.6964357334094953, -0.042765176997619614, 0.7914146372793363], [0.04321396420933854, 0.9553480459562207, -0.6096852690682244], [0.01405934530066788, -0.0941816897420511, 0.7026156052682897], [0.06621252095329067, -0.8728737037483976, 0.8339152997001302], [0.0568511144438868, -0.9345771513054268, 0.1609528967827849]]]
