{"weights":["3 2 2 3\n[[[-0.9670897986997009, -0.8801464890018822, -0.6529849843179285, 0.550670909284801], [-0.33889796884113443, -0.9513055591454571, -0.5596222757530502, -0.9013262375654261], [0.339225585404223, 0.36442727812602316, -0.2931123028849896, 0.3282494541210088], [0.7421634912669786, 0.6159568114559375, 0.08463266120438528, -0.451980173061151]], [[0.10500465248364788, 0.6036633863139029, -0.12294230764245428], [-0.06034314702559551, 0.806785393318054, 0.10264408211225207], [0.8970337478063855, -0.4636929523775988, 0.14975886490525858], [0.3066424842705109, -0.5300781946778597, 0.48234757546017115]], [[0.938950918249563, 0.5406530625949935, 0.34026816448006225], [-0.19417100157492828, -0.3222475934942248, -0.7371331270620247], [0.41665751701549114, -0.6345158842958158, 0.043676949755946604], [-0.9275952803168301, -0.9104110627590585, -0.8241642894608949], [0.9314421336199699, 0.25327876956889517, 0.6585765498916005], [0.5630780474399548, 0.013567466346137813, -0.20590863327040698]]]"],"structure":"2 4 5"}